digraph Tree {
node [shape=box, style="filled, rounded", color="black", fontname=helvetica] ;
edge [fontname=helvetica] ;
0 [label="tulot <= 57500.0\ngini = 0.302\nsamples = 673\nvalue = [548, 125]\nclass = y[0]", fillcolor="#eb9e66"] ;
1 [label="tulot <= 46500.0\ngini = 0.052\nsamples = 524\nvalue = [510, 14]\nclass = y[0]", fillcolor="#e6843e"] ;
0 -> 1 [labeldistance=2.5, labelangle=45, headlabel="True"] ;
2 [label="tulot <= 34500.0\ngini = 0.017\nsamples = 454\nvalue = [450, 4]\nclass = y[0]", fillcolor="#e5823b"] ;
1 -> 2 ;
3 [label="gini = 0.0\nsamples = 359\nvalue = [359, 0]\nclass = y[0]", fillcolor="#e58139"] ;
2 -> 3 ;
4 [label="tulot <= 35500.0\ngini = 0.081\nsamples = 95\nvalue = [91, 4]\nclass = y[0]", fillcolor="#e68742"] ;
2 -> 4 ;
5 [label="gini = 0.375\nsamples = 8\nvalue = [6, 2]\nclass = y[0]", fillcolor="#eeab7b"] ;
4 -> 5 ;
6 [label="gini = 0.045\nsamples = 87\nvalue = [85, 2]\nclass = y[0]", fillcolor="#e6843e"] ;
4 -> 6 ;
7 [label="sukupuoli <= 0.5\ngini = 0.245\nsamples = 70\nvalue = [60, 10]\nclass = y[0]", fillcolor="#e9965a"] ;
1 -> 7 ;
8 [label="tulot <= 54500.0\ngini = 0.059\nsamples = 33\nvalue = [32, 1]\nclass = y[0]", fillcolor="#e6853f"] ;
7 -> 8 ;
9 [label="gini = 0.0\nsamples = 27\nvalue = [27, 0]\nclass = y[0]", fillcolor="#e58139"] ;
8 -> 9 ;
10 [label="gini = 0.278\nsamples = 6\nvalue = [5, 1]\nclass = y[0]", fillcolor="#ea9a61"] ;
8 -> 10 ;
11 [label="tulot <= 48500.0\ngini = 0.368\nsamples = 37\nvalue = [28, 9]\nclass = y[0]", fillcolor="#edaa79"] ;
7 -> 11 ;
12 [label="gini = 0.48\nsamples = 5\nvalue = [2, 3]\nclass = y[1]", fillcolor="#bddef6"] ;
11 -> 12 ;
13 [label="gini = 0.305\nsamples = 32\nvalue = [26, 6]\nclass = y[0]", fillcolor="#eb9e67"] ;
11 -> 13 ;
14 [label="tulot <= 65500.0\ngini = 0.38\nsamples = 149\nvalue = [38, 111]\nclass = y[1]", fillcolor="#7dbfee"] ;
0 -> 14 [labeldistance=2.5, labelangle=-45, headlabel="False"] ;
15 [label="naimisissa <= 0.5\ngini = 0.496\nsamples = 35\nvalue = [19, 16]\nclass = y[0]", fillcolor="#fbebe0"] ;
14 -> 15 ;
16 [label="tulot <= 59500.0\ngini = 0.142\nsamples = 13\nvalue = [12, 1]\nclass = y[0]", fillcolor="#e78c49"] ;
15 -> 16 ;
17 [label="gini = 0.375\nsamples = 4\nvalue = [3, 1]\nclass = y[0]", fillcolor="#eeab7b"] ;
16 -> 17 ;
18 [label="gini = 0.0\nsamples = 9\nvalue = [9, 0]\nclass = y[0]", fillcolor="#e58139"] ;
16 -> 18 ;
19 [label="tulot <= 63000.0\ngini = 0.434\nsamples = 22\nvalue = [7, 15]\nclass = y[1]", fillcolor="#95cbf1"] ;
15 -> 19 ;
20 [label="gini = 0.475\nsamples = 18\nvalue = [7, 11]\nclass = y[1]", fillcolor="#b7dbf6"] ;
19 -> 20 ;
21 [label="gini = 0.0\nsamples = 4\nvalue = [0, 4]\nclass = y[1]", fillcolor="#399de5"] ;
19 -> 21 ;
22 [label="sukupuoli <= 0.5\ngini = 0.278\nsamples = 114\nvalue = [19, 95]\nclass = y[1]", fillcolor="#61b1ea"] ;
14 -> 22 ;
23 [label="tulot <= 67500.0\ngini = 0.37\nsamples = 53\nvalue = [13, 40]\nclass = y[1]", fillcolor="#79bded"] ;
22 -> 23 ;
24 [label="gini = 0.0\nsamples = 4\nvalue = [0, 4]\nclass = y[1]", fillcolor="#399de5"] ;
23 -> 24 ;
25 [label="gini = 0.39\nsamples = 49\nvalue = [13, 36]\nclass = y[1]", fillcolor="#80c0ee"] ;
23 -> 25 ;
26 [label="tulot <= 71500.0\ngini = 0.177\nsamples = 61\nvalue = [6, 55]\nclass = y[1]", fillcolor="#4fa8e8"] ;
22 -> 26 ;
27 [label="gini = 0.375\nsamples = 16\nvalue = [4, 12]\nclass = y[1]", fillcolor="#7bbeee"] ;
26 -> 27 ;
28 [label="gini = 0.085\nsamples = 45\nvalue = [2, 43]\nclass = y[1]", fillcolor="#42a2e6"] ;
26 -> 28 ;
}